svm_type c_svc
kernel_type linear
nr_class 2
total_sv 14
rho 1.47766
label 1 -1
nr_sv 7 7
SV
3 0:-0.47622097 1:1.4286629 
3 0:0.022504194 1:-0.067512581 
3 0:-0.74957875 1:2.2487362 
3 0:0.10141916 1:-0.30425747 
1.01598104402834 0:-1.4908647 1:4.4725942 
3 0:-0.37296616 1:1.1188985 
3 0:-1.1117127 1:3.3351382 
-3 0:-0.44210529 1:1.3263159 
-3 0:-0.65931776 1:1.9779533 
-3 0:-0.30156051 1:0.90468154 
-3 0:-0.37445107 1:1.1233532 
-3 0:-0.48527668 1:1.4558301 
-3 0:-0.67600598 1:2.0280179 
-1.015981044028341 0:-0.28742119 1:0.86226356 
