svm_type c_svc
kernel_type linear
nr_class 2
total_sv 6
rho 1.66775
label 1 -1
nr_sv 3 3
SV
3 0:-0.9127329 1:2.7381987 
3 0:-0.21444943 1:0.64334828 
1.192086134397627 0:-1.1396145 1:3.4188436 
-3 0:-1.0488583 1:3.1465748 
-3 0:-0.339785 1:1.019355 
-1.192086134397628 0:-0.2852509 1:0.85575269 
