svm_type c_svc
kernel_type linear
nr_class 2
total_sv 18
rho 1.24973
label 1 -1
nr_sv 9 9
SV
3 0:-1.565016 1:4.6950479 
3 0:-1.7801386 1:5.3404158 
3 0:-0.77750465 1:2.3325139 
3 0:-1.4195356 1:4.2586067 
3 0:-2.4952377 1:7.4857131 
3 0:-2.0021308 1:6.0063924 
3 0:-1.3453554 1:4.0360663 
3 0:-0.92478202 1:2.7743461 
2.121220491145411 0:-4.0121167 1:12.03635 
-2.121220491145411 0:-0.4453626 1:1.3360878 
-3 0:-0.71049699 1:2.131491 
-3 0:-0.57758286 1:1.7327486 
-3 0:-1.216805 1:3.6504151 
-3 0:-0.58011791 1:1.7403537 
-3 0:-3.9061454 1:11.718436 
-3 0:-2.6521034 1:7.9563101 
-3 0:-2.1993635 1:6.5980905 
-3 0:-2.9703516 1:8.9110549 
