svm_type c_svc
kernel_type linear
nr_class 2
total_sv 10
rho 1.03801
label 1 -1
nr_sv 5 5
SV
3 0:0.21832693 1:-0.65498078 
0.7521032024541093 0:-1.049147 1:3.147441 
3 0:0.12032599 1:-0.36097797 
3 0:-0.65887137 1:1.9766141 
3 0:-0.70946658 1:2.1283997 
-3 0:-0.1987871 1:0.5963613 
-0.7521032024541087 0:-0.019569276 1:0.058707827 
-3 0:-0.82209696 1:2.4662909 
-3 0:-0.05140466 1:0.15421398 
-3 0:-0.15076108 1:0.45228325 
